digraph Tree {
node [shape=box, style="rounded", color="black", fontname=helvetica] ;
edge [fontname=helvetica] ;
0 [label="chl_a <= 4.1\nmse = 747.2\nsamples = 111\nvalue = 533.8"] ;
1 [label="year <= 2007.0\nmse = 562.8\nsamples = 68\nvalue = 518.9"] ;
0 -> 1 [labeldistance=2.5, labelangle=45, headlabel="True"] ;
2 [label="wholearea <= 17.4\nmse = 45.0\nsamples = 26\nvalue = 500.7"] ;
1 -> 2 ;
3 [label="mse = 8.4\nsamples = 14\nvalue = 495.2"] ;
2 -> 3 ;
4 [label="mse = 11.0\nsamples = 12\nvalue = 507.1"] ;
2 -> 4 ;
5 [label="burnedarea <= 5.6\nmse = 553.9\nsamples = 42\nvalue = 529.9"] ;
1 -> 5 ;
6 [label="mse = 369.0\nsamples = 30\nvalue = 536.1"] ;
5 -> 6 ;
7 [label="mse = 681.1\nsamples = 12\nvalue = 514.1"] ;
5 -> 7 ;
8 [label="chili <= 194.5\nmse = 124.7\nsamples = 43\nvalue = 557.5"] ;
0 -> 8 [labeldistance=2.5, labelangle=-45, headlabel="False"] ;
9 [label="mse = 0.0\nsamples = 1\nvalue = 493.0"] ;
8 -> 9 ;
10 [label="slope <= 5.9\nmse = 63.5\nsamples = 42\nvalue = 558.5"] ;
8 -> 10 ;
11 [label="mse = 8.1\nsamples = 41\nvalue = 559.4"] ;
10 -> 11 ;
12 [label="mse = 0.0\nsamples = 1\nvalue = 498.0"] ;
10 -> 12 ;
}